digraph Tree {
node [shape=box] ;
0 [label="C150_4 <= 0.731\nmse = 85769597.375\nsamples = 1221\nvalue = 36720.066"] ;
1 [label="CDR2 <= 0.065\nmse = 45568044.272\nsamples = 979\nvalue = 34346.476"] ;
0 -> 1 [labeldistance=2.5, labelangle=45, headlabel="True"] ;
2 [label="Health_Professions <= 0.661\nmse = 47092669.633\nsamples = 627\nvalue = 36456.14"] ;
1 -> 2 ;
3 [label="Engineering <= 0.339\nmse = 32786691.775\nsamples = 611\nvalue = 36001.473"] ;
2 -> 3 ;
4 [label="AVGFACSAL <= 6941.5\nmse = 26272701.294\nsamples = 601\nvalue = 35682.862"] ;
3 -> 4 ;
5 [label="Health_Professions <= 0.008\nmse = 22959098.728\nsamples = 217\nvalue = 33005.069"] ;
4 -> 5 ;
6 [label="mse = 15076313.443\nsamples = 54\nvalue = 29212.963"] ;
5 -> 6 ;
7 [label="mse = 19228383.454\nsamples = 163\nvalue = 34261.35"] ;
5 -> 7 ;
8 [label="Health_Professions <= 0.284\nmse = 21803239.95\nsamples = 384\nvalue = 37196.094"] ;
4 -> 8 ;
9 [label="mse = 16810839.302\nsamples = 330\nvalue = 36496.97"] ;
8 -> 9 ;
10 [label="mse = 31071786.694\nsamples = 54\nvalue = 41468.519"] ;
8 -> 10 ;
11 [label="GRAD_DEBT_MDN <= 27500.0\nmse = 51510500.0\nsamples = 10\nvalue = 55150.0"] ;
3 -> 11 ;
12 [label="C150_4 <= 0.604\nmse = 27381728.395\nsamples = 9\nvalue = 53422.222"] ;
11 -> 12 ;
13 [label="mse = 16615555.556\nsamples = 3\nvalue = 47666.667"] ;
12 -> 13 ;
14 [label="mse = 7920000.0\nsamples = 6\nvalue = 56300.0"] ;
12 -> 14 ;
15 [label="mse = 0.0\nsamples = 1\nvalue = 70700.0"] ;
11 -> 15 ;
16 [label="TUITIONFEE_OUT <= 33610.0\nmse = 284047773.438\nsamples = 16\nvalue = 53818.75"] ;
2 -> 16 ;
17 [label="AVGFACSAL <= 7620.0\nmse = 15019234.694\nsamples = 14\nvalue = 48092.857"] ;
16 -> 17 ;
18 [label="GRAD_DEBT_MDN <= 26000.0\nmse = 8452430.556\nsamples = 12\nvalue = 46958.333"] ;
17 -> 18 ;
19 [label="mse = 5809795.918\nsamples = 7\nvalue = 45185.714"] ;
18 -> 19 ;
20 [label="mse = 1594400.0\nsamples = 5\nvalue = 49440.0"] ;
18 -> 20 ;
21 [label="GRAD_DEBT_MDN <= 23395.0\nmse = 360000.0\nsamples = 2\nvalue = 54900.0"] ;
17 -> 21 ;
22 [label="mse = 0.0\nsamples = 1\nvalue = 55500.0"] ;
21 -> 22 ;
23 [label="mse = 0.0\nsamples = 1\nvalue = 54300.0"] ;
21 -> 23 ;
24 [label="AVGFACSAL <= 9592.5\nmse = 331240000.0\nsamples = 2\nvalue = 93900.0"] ;
16 -> 24 ;
25 [label="mse = 0.0\nsamples = 1\nvalue = 112100.0"] ;
24 -> 25 ;
26 [label="mse = 0.0\nsamples = 1\nvalue = 75700.0"] ;
24 -> 26 ;
27 [label="CDR2 <= 0.115\nmse = 20803166.322\nsamples = 352\nvalue = 30588.636"] ;
1 -> 27 ;
28 [label="AVGFACSAL <= 7170.0\nmse = 17666696.454\nsamples = 273\nvalue = 31721.978"] ;
27 -> 28 ;
29 [label="TUITIONFEE_OUT <= 21522.0\nmse = 14554542.395\nsamples = 129\nvalue = 30168.992"] ;
28 -> 29 ;
30 [label="BioMedical <= 0.077\nmse = 12997879.29\nsamples = 65\nvalue = 28652.308"] ;
29 -> 30 ;
31 [label="mse = 9518426.446\nsamples = 55\nvalue = 29470.909"] ;
30 -> 31 ;
32 [label="mse = 8178500.0\nsamples = 10\nvalue = 24150.0"] ;
30 -> 32 ;
33 [label="AVGFACSAL <= 7080.0\nmse = 11426474.609\nsamples = 64\nvalue = 31709.375"] ;
29 -> 33 ;
34 [label="mse = 10089836.108\nsamples = 62\nvalue = 31498.387"] ;
33 -> 34 ;
35 [label="mse = 8702500.0\nsamples = 2\nvalue = 38250.0"] ;
33 -> 35 ;
36 [label="Engineering <= 0.039\nmse = 16358645.351\nsamples = 144\nvalue = 33113.194"] ;
28 -> 36 ;
37 [label="SAT_AVG <= 989.0\nmse = 14114945.414\nsamples = 99\nvalue = 32079.798"] ;
36 -> 37 ;
38 [label="mse = 7635555.556\nsamples = 9\nvalue = 27900.0"] ;
37 -> 38 ;
39 [label="mse = 12841106.173\nsamples = 90\nvalue = 32497.778"] ;
37 -> 39 ;
40 [label="BioMedical <= 0.004\nmse = 13776711.111\nsamples = 45\nvalue = 35386.667"] ;
36 -> 40 ;
41 [label="mse = 0.0\nsamples = 1\nvalue = 47900.0"] ;
40 -> 41 ;
42 [label="mse = 10450222.107\nsamples = 44\nvalue = 35102.273"] ;
40 -> 42 ;
43 [label="SAT_AVG <= 979.0\nmse = 11864287.774\nsamples = 79\nvalue = 26672.152"] ;
27 -> 43 ;
44 [label="Health_Professions <= 0.088\nmse = 7174055.556\nsamples = 30\nvalue = 23883.333"] ;
43 -> 44 ;
45 [label="SAT_AVG <= 892.0\nmse = 4807654.321\nsamples = 18\nvalue = 22611.111"] ;
44 -> 45 ;
46 [label="mse = 1498055.556\nsamples = 6\nvalue = 21016.667"] ;
45 -> 46 ;
47 [label="mse = 4555763.889\nsamples = 12\nvalue = 23408.333"] ;
45 -> 47 ;
48 [label="Communication <= 0.05\nmse = 4654097.222\nsamples = 12\nvalue = 25791.667"] ;
44 -> 48 ;
49 [label="mse = 4015555.556\nsamples = 6\nvalue = 27166.667"] ;
48 -> 49 ;
50 [label="mse = 1511388.889\nsamples = 6\nvalue = 24416.667"] ;
48 -> 50 ;
51 [label="GRAD_DEBT_MDN <= 29929.0\nmse = 7058767.18\nsamples = 49\nvalue = 28379.592"] ;
43 -> 51 ;
52 [label="AVGFACSAL <= 4316.0\nmse = 6154765.432\nsamples = 45\nvalue = 28711.111"] ;
51 -> 52 ;
53 [label="mse = 2055555.556\nsamples = 3\nvalue = 24833.333"] ;
52 -> 53 ;
54 [label="mse = 5296763.039\nsamples = 42\nvalue = 28988.095"] ;
52 -> 54 ;
55 [label="C150_4 <= 0.415\nmse = 2082500.0\nsamples = 4\nvalue = 24650.0"] ;
51 -> 55 ;
56 [label="mse = 62500.0\nsamples = 2\nvalue = 23350.0"] ;
55 -> 56 ;
57 [label="mse = 722500.0\nsamples = 2\nvalue = 25950.0"] ;
55 -> 57 ;
58 [label="Engineering <= 0.145\nmse = 133408179.769\nsamples = 242\nvalue = 46322.314"] ;
0 -> 58 [labeldistance=2.5, labelangle=-45, headlabel="False"] ;
59 [label="BioMedical <= 0.508\nmse = 98321624.377\nsamples = 190\nvalue = 43444.211"] ;
58 -> 59 ;
60 [label="AVGFACSAL <= 13616.5\nmse = 67341697.041\nsamples = 189\nvalue = 43037.037"] ;
59 -> 60 ;
61 [label="Health_Professions <= 0.338\nmse = 44246145.508\nsamples = 163\nvalue = 41437.423"] ;
60 -> 61 ;
62 [label="AVGFACSAL <= 9494.0\nmse = 31949427.143\nsamples = 153\nvalue = 40584.314"] ;
61 -> 62 ;
63 [label="mse = 25627932.099\nsamples = 54\nvalue = 37372.222"] ;
62 -> 63 ;
64 [label="mse = 26700091.827\nsamples = 99\nvalue = 42336.364"] ;
62 -> 64 ;
65 [label="BioMedical <= 0.155\nmse = 50880900.0\nsamples = 10\nvalue = 54490.0"] ;
61 -> 65 ;
66 [label="mse = 8549375.0\nsamples = 8\nvalue = 51175.0"] ;
65 -> 66 ;
67 [label="mse = 422500.0\nsamples = 2\nvalue = 67750.0"] ;
65 -> 67 ;
68 [label="TUITIONFEE_IN <= 16027.5\nmse = 95523801.775\nsamples = 26\nvalue = 53065.385"] ;
60 -> 68 ;
69 [label="AVGFACSAL <= 16183.5\nmse = 18762448.98\nsamples = 7\nvalue = 41557.143"] ;
68 -> 69 ;
70 [label="mse = 8171875.0\nsamples = 4\nvalue = 38575.0"] ;
69 -> 70 ;
71 [label="mse = 5215555.556\nsamples = 3\nvalue = 45533.333"] ;
69 -> 71 ;
72 [label="CDR2 <= 0.009\nmse = 57034182.825\nsamples = 19\nvalue = 57305.263"] ;
68 -> 72 ;
73 [label="mse = 8328888.889\nsamples = 3\nvalue = 67533.333"] ;
72 -> 73 ;
74 [label="mse = 42873593.75\nsamples = 16\nvalue = 55387.5"] ;
72 -> 74 ;
75 [label="mse = 0.0\nsamples = 1\nvalue = 120400.0"] ;
59 -> 75 ;
76 [label="Communication <= 0.015\nmse = 120753136.095\nsamples = 52\nvalue = 56838.462"] ;
58 -> 76 ;
77 [label="BioMedical <= 0.088\nmse = 94382222.222\nsamples = 30\nvalue = 62266.667"] ;
76 -> 77 ;
78 [label="GRAD_DEBT_MDN <= 20250.0\nmse = 70907590.028\nsamples = 19\nvalue = 65663.158"] ;
77 -> 78 ;
79 [label="C150_4 <= 0.939\nmse = 142436326.531\nsamples = 7\nvalue = 61428.571"] ;
78 -> 79 ;
80 [label="mse = 64565000.0\nsamples = 4\nvalue = 53900.0"] ;
79 -> 80 ;
81 [label="mse = 69928888.889\nsamples = 3\nvalue = 71466.667"] ;
79 -> 81 ;
82 [label="CDR2 <= 0.031\nmse = 12620555.556\nsamples = 12\nvalue = 68133.333"] ;
78 -> 82 ;
83 [label="mse = 8564100.0\nsamples = 10\nvalue = 67170.0"] ;
82 -> 83 ;
84 [label="mse = 5062500.0\nsamples = 2\nvalue = 72950.0"] ;
82 -> 84 ;
85 [label="CDR2 <= 0.021\nmse = 80585454.545\nsamples = 11\nvalue = 56400.0"] ;
77 -> 85 ;
86 [label="SAT_AVG <= 1514.5\nmse = 38799375.0\nsamples = 8\nvalue = 60825.0"] ;
85 -> 86 ;
87 [label="mse = 5244081.633\nsamples = 7\nvalue = 58614.286"] ;
86 -> 87 ;
88 [label="mse = 0.0\nsamples = 1\nvalue = 76300.0"] ;
86 -> 88 ;
89 [label="TUITIONFEE_OUT <= 41417.0\nmse = 560000.0\nsamples = 3\nvalue = 44600.0"] ;
85 -> 89 ;
90 [label="mse = 0.0\nsamples = 1\nvalue = 43600.0"] ;
89 -> 90 ;
91 [label="mse = 90000.0\nsamples = 2\nvalue = 45100.0"] ;
89 -> 91 ;
92 [label="TUITIONFEE_IN <= 46172.0\nmse = 61742314.05\nsamples = 22\nvalue = 49436.364"] ;
76 -> 92 ;
93 [label="CDR2 <= 0.037\nmse = 21125600.0\nsamples = 15\nvalue = 44980.0"] ;
92 -> 93 ;
94 [label="Engineering <= 0.284\nmse = 15789876.543\nsamples = 9\nvalue = 47611.111"] ;
93 -> 94 ;
95 [label="mse = 11658593.75\nsamples = 8\nvalue = 46787.5"] ;
94 -> 95 ;
96 [label="mse = 0.0\nsamples = 1\nvalue = 54200.0"] ;
94 -> 96 ;
97 [label="AVGFACSAL <= 11795.5\nmse = 3168888.889\nsamples = 6\nvalue = 41033.333"] ;
93 -> 97 ;
98 [label="mse = 397600.0\nsamples = 5\nvalue = 40280.0"] ;
97 -> 98 ;
99 [label="mse = 0.0\nsamples = 1\nvalue = 44800.0"] ;
97 -> 99 ;
100 [label="C150_4 <= 0.893\nmse = 15032653.061\nsamples = 7\nvalue = 58985.714"] ;
92 -> 100 ;
101 [label="Engineering <= 0.406\nmse = 3375555.556\nsamples = 3\nvalue = 55166.667"] ;
100 -> 101 ;
102 [label="mse = 250000.0\nsamples = 2\nvalue = 53900.0"] ;
101 -> 102 ;
103 [label="mse = 0.0\nsamples = 1\nvalue = 57700.0"] ;
101 -> 103 ;
104 [label="Communication <= 0.082\nmse = 4632500.0\nsamples = 4\nvalue = 61850.0"] ;
100 -> 104 ;
105 [label="mse = 1210000.0\nsamples = 2\nvalue = 63700.0"] ;
104 -> 105 ;
106 [label="mse = 1210000.0\nsamples = 2\nvalue = 60000.0"] ;
104 -> 106 ;
}